digraph Tree {
node [shape=box, style="filled, rounded", color="black", fontname="Microsoft YaHei"] ;
edge [fontname="Microsoft YaHei"] ;
0 [label="X[0] <= 0.064\nentropy = 0.539\nsamples = 1271\nvalue = [1114, 157]", fillcolor="#e99355"] ;
1 [label="X[12] <= 5.576\nentropy = 0.495\nsamples = 997\nvalue = [889, 108]", fillcolor="#e89051"] ;
0 -> 1 [labeldistance=2.5, labelangle=45, headlabel="True"] ;
2 [label="X[35] <= 4.451\nentropy = 0.504\nsamples = 969\nvalue = [861, 108]", fillcolor="#e89152"] ;
1 -> 2 ;
3 [label="X[4] <= 0.191\nentropy = 0.499\nsamples = 966\nvalue = [860, 106]", fillcolor="#e89151"] ;
2 -> 3 ;
4 [label="X[35] <= 3.689\nentropy = 0.461\nsamples = 626\nvalue = [565, 61]", fillcolor="#e88f4e"] ;
3 -> 4 ;
5 [label="X[46] <= 5.961\nentropy = 0.452\nsamples = 622\nvalue = [563, 59]", fillcolor="#e88e4e"] ;
4 -> 5 ;
6 [label="entropy = 0.44\nsamples = 615\nvalue = [559, 56]", fillcolor="#e88e4d"] ;
5 -> 6 ;
7 [label="entropy = 0.985\nsamples = 7\nvalue = [4, 3]", fillcolor="#f8e0ce"] ;
5 -> 7 ;
8 [label="X[16] <= 2.5\nentropy = 1.0\nsamples = 4\nvalue = [2, 2]", fillcolor="#ffffff"] ;
4 -> 8 ;
9 [label="entropy = 0.0\nsamples = 2\nvalue = [0, 2]", fillcolor="#399de5"] ;
8 -> 9 ;
10 [label="entropy = 0.0\nsamples = 2\nvalue = [2, 0]", fillcolor="#e58139"] ;
8 -> 10 ;
11 [label="X[55] <= 1.286\nentropy = 0.564\nsamples = 340\nvalue = [295, 45]", fillcolor="#e99457"] ;
3 -> 11 ;
12 [label="X[40] <= 5.775\nentropy = 0.586\nsamples = 320\nvalue = [275, 45]", fillcolor="#e99659"] ;
11 -> 12 ;
13 [label="entropy = 0.614\nsamples = 290\nvalue = [246, 44]", fillcolor="#ea985c"] ;
12 -> 13 ;
14 [label="entropy = 0.211\nsamples = 30\nvalue = [29, 1]", fillcolor="#e68540"] ;
12 -> 14 ;
15 [label="entropy = 0.0\nsamples = 20\nvalue = [20, 0]", fillcolor="#e58139"] ;
11 -> 15 ;
16 [label="X[35] <= 6.487\nentropy = 0.918\nsamples = 3\nvalue = [1, 2]", fillcolor="#9ccef2"] ;
2 -> 16 ;
17 [label="entropy = 0.0\nsamples = 1\nvalue = [1, 0]", fillcolor="#e58139"] ;
16 -> 17 ;
18 [label="entropy = 0.0\nsamples = 2\nvalue = [0, 2]", fillcolor="#399de5"] ;
16 -> 18 ;
19 [label="entropy = 0.0\nsamples = 28\nvalue = [28, 0]", fillcolor="#e58139"] ;
1 -> 19 ;
20 [label="X[2] <= 0.341\nentropy = 0.678\nsamples = 274\nvalue = [225, 49]", fillcolor="#eb9c64"] ;
0 -> 20 [labeldistance=2.5, labelangle=-45, headlabel="False"] ;
21 [label="X[1] <= 2.246\nentropy = 0.58\nsamples = 159\nvalue = [137, 22]", fillcolor="#e99559"] ;
20 -> 21 ;
22 [label="X[53] <= 1.129\nentropy = 0.863\nsamples = 28\nvalue = [20, 8]", fillcolor="#efb388"] ;
21 -> 22 ;
23 [label="X[32] <= 2.064\nentropy = 0.997\nsamples = 15\nvalue = [8, 7]", fillcolor="#fcefe6"] ;
22 -> 23 ;
24 [label="entropy = 0.0\nsamples = 2\nvalue = [2, 0]", fillcolor="#e58139"] ;
23 -> 24 ;
25 [label="X[15] <= 3.691\nentropy = 0.996\nsamples = 13\nvalue = [6, 7]", fillcolor="#e3f1fb"] ;
23 -> 25 ;
26 [label="entropy = 0.0\nsamples = 3\nvalue = [3, 0]", fillcolor="#e58139"] ;
25 -> 26 ;
27 [label="entropy = 0.881\nsamples = 10\nvalue = [3, 7]", fillcolor="#8ec7f0"] ;
25 -> 27 ;
28 [label="X[1] <= 1.772\nentropy = 0.391\nsamples = 13\nvalue = [12, 1]", fillcolor="#e78c49"] ;
22 -> 28 ;
29 [label="entropy = 0.0\nsamples = 11\nvalue = [11, 0]", fillcolor="#e58139"] ;
28 -> 29 ;
30 [label="X[52] <= 1.627\nentropy = 1.0\nsamples = 2\nvalue = [1, 1]", fillcolor="#ffffff"] ;
28 -> 30 ;
31 [label="entropy = 0.0\nsamples = 1\nvalue = [0, 1]", fillcolor="#399de5"] ;
30 -> 31 ;
32 [label="entropy = 0.0\nsamples = 1\nvalue = [1, 0]", fillcolor="#e58139"] ;
30 -> 32 ;
33 [label="X[29] <= 3.213\nentropy = 0.49\nsamples = 131\nvalue = [117, 14]", fillcolor="#e89051"] ;
21 -> 33 ;
34 [label="entropy = 0.0\nsamples = 47\nvalue = [47, 0]", fillcolor="#e58139"] ;
33 -> 34 ;
35 [label="X[46] <= 4.669\nentropy = 0.65\nsamples = 84\nvalue = [70, 14]", fillcolor="#ea9a61"] ;
33 -> 35 ;
36 [label="X[46] <= 1.841\nentropy = 0.508\nsamples = 71\nvalue = [63, 8]", fillcolor="#e89152"] ;
35 -> 36 ;
37 [label="entropy = 0.0\nsamples = 1\nvalue = [0, 1]", fillcolor="#399de5"] ;
36 -> 37 ;
38 [label="entropy = 0.469\nsamples = 70\nvalue = [63, 7]", fillcolor="#e88f4f"] ;
36 -> 38 ;
39 [label="X[1] <= 3.653\nentropy = 0.996\nsamples = 13\nvalue = [7, 6]", fillcolor="#fbede3"] ;
35 -> 39 ;
40 [label="entropy = 0.592\nsamples = 7\nvalue = [6, 1]", fillcolor="#e9965a"] ;
39 -> 40 ;
41 [label="entropy = 0.65\nsamples = 6\nvalue = [1, 5]", fillcolor="#61b1ea"] ;
39 -> 41 ;
42 [label="X[27] <= 2.679\nentropy = 0.786\nsamples = 115\nvalue = [88, 27]", fillcolor="#eda876"] ;
20 -> 42 ;
43 [label="entropy = 0.0\nsamples = 10\nvalue = [10, 0]", fillcolor="#e58139"] ;
42 -> 43 ;
44 [label="X[46] <= 4.04\nentropy = 0.822\nsamples = 105\nvalue = [78, 27]", fillcolor="#eead7e"] ;
42 -> 44 ;
45 [label="X[57] <= 4.956\nentropy = 0.853\nsamples = 97\nvalue = [70, 27]", fillcolor="#efb285"] ;
44 -> 45 ;
46 [label="X[28] <= 4.359\nentropy = 0.942\nsamples = 64\nvalue = [41, 23]", fillcolor="#f4c8a8"] ;
45 -> 46 ;
47 [label="entropy = 0.965\nsamples = 59\nvalue = [36, 23]", fillcolor="#f6d2b8"] ;
46 -> 47 ;
48 [label="entropy = 0.0\nsamples = 5\nvalue = [5, 0]", fillcolor="#e58139"] ;
46 -> 48 ;
49 [label="X[53] <= 1.772\nentropy = 0.533\nsamples = 33\nvalue = [29, 4]", fillcolor="#e99254"] ;
45 -> 49 ;
50 [label="entropy = 0.684\nsamples = 22\nvalue = [18, 4]", fillcolor="#eb9d65"] ;
49 -> 50 ;
51 [label="entropy = 0.0\nsamples = 11\nvalue = [11, 0]", fillcolor="#e58139"] ;
49 -> 51 ;
52 [label="entropy = 0.0\nsamples = 8\nvalue = [8, 0]", fillcolor="#e58139"] ;
44 -> 52 ;
}